36.000000 1.000000 1.000000 -0.315273 -0.119994 0.028812 1.131062 1.527839 -1.252444
36.000000 2.000000 1.000000 -0.315553 -0.120261 0.028876 1.130932 1.531233 -1.255227
36.000000 3.000000 1.000000 -0.315845 -0.120542 0.028943 1.130792 1.534818 -1.258166
36.000000 4.000000 1.000000 -0.316149 -0.120840 0.029015 1.130639 1.538608 -1.261273
36.000000 5.000000 1.000000 -0.316466 -0.121155 0.029090 1.130471 1.542623 -1.264564
36.000000 6.000000 1.000000 -0.316796 -0.121490 0.029171 1.130288 1.546883 -1.268056
36.000000 7.000000 1.000000 -0.317140 -0.121845 0.029256 1.130086 1.551410 -1.271767
36.000000 8.000000 1.000000 -0.317499 -0.122224 0.029347 1.129864 1.556231 -1.275720
36.000000 9.000000 1.000000 -0.317874 -0.122628 0.029444 1.129619 1.561375 -1.279936
36.000000 10.000000 1.000000 -0.318264 -0.123060 0.029548 1.129346 1.566876 -1.284445
36.000000 11.000000 1.000000 -0.318671 -0.123523 0.029659 1.129042 1.572770 -1.289277
36.000000 12.000000 1.000000 -0.319094 -0.124020 0.029778 1.128701 1.579102 -1.294468
36.000000 13.000000 1.000000 -0.319533 -0.124556 0.029907 1.128318 1.585922 -1.300058
36.000000 14.000000 1.000000 -0.319988 -0.125134 0.030046 1.127885 1.593288 -1.306096
36.000000 15.000000 1.000000 -0.320458 -0.125761 0.030196 1.127393 1.601266 -1.312637
36.000000 16.000000 1.000000 -0.320940 -0.126442 0.030360 1.126830 1.609937 -1.319745
36.000000 17.000000 1.000000 -0.321432 -0.127184 0.030538 1.126182 1.619392 -1.327496
36.000000 18.000000 1.000000 -0.321929 -0.127997 0.030733 1.125431 1.629741 -1.335979
36.000000 19.000000 1.000000 -0.322423 -0.128890 0.030948 1.124554 1.641114 -1.345302
36.000000 20.000000 1.000000 -0.322902 -0.129876 0.031184 1.123520 1.653667 -1.355592
36.000000 21.000000 1.000000 -0.323350 -0.130970 0.031447 1.122289 1.667587 -1.367003
36.000000 22.000000 1.000000 -0.323739 -0.132188 0.031740 1.120807 1.683103 -1.379722
36.000000 23.000000 1.000000 -0.324030 -0.133554 0.032067 1.119002 1.700492 -1.393977
36.000000 24.000000 1.000000 -0.324163 -0.135094 0.032437 1.116770 1.720097 -1.410048
36.000000 25.000000 1.000000 -0.324041 -0.136840 0.032857 1.113967 1.742338 -1.428281
36.000000 26.000000 1.000000 -0.323512 -0.138835 0.033336 1.110376 1.767735 -1.449100
36.000000 27.000000 1.000000 -0.322329 -0.141127 0.033886 1.105674 1.796921 -1.473024
36.000000 28.000000 1.000000 -0.320069 -0.143776 0.034522 1.099348 1.830646 -1.500671
36.000000 29.000000 1.000000 -0.315992 -0.146846 0.035259 1.090558 1.869737 -1.532715
36.000000 30.000000 1.000000 -0.308724 -0.150393 0.036111 1.077845 1.914896 -1.569734
36.000000 31.000000 1.000000 -0.295550 -0.154408 0.037075 1.058507 1.966018 -1.611642
36.000000 32.000000 1.000000 -0.270646 -0.158641 0.038091 1.027105 2.019912 -1.655821
36.000000 33.000000 1.000000 -0.220153 -0.161963 0.038889 0.971511 2.062214 -1.690498
36.000000 34.000000 1.000000 -0.106426 -0.159855 0.038383 0.861021 2.035369 -1.668493
36.000000 35.000000 1.000000 0.188130 -0.132977 0.031929 0.607727 1.693144 -1.387954
36.000000 36.000000 1.000000 1.000000 -0.000000 -0.000000 0.000000 -0.000000 -0.000000
36.000000 37.000000 1.000000 1.888100 0.273347 -0.065633 -0.468466 -3.480419 2.853071
36.000000 38.000000 1.000000 1.088546 0.225520 -0.054149 0.257667 -2.871465 2.353881
36.000000 39.000000 1.000000 0.437230 0.105782 -0.025399 0.725164 -1.346883 1.104106
36.000000 40.000000 1.000000 0.144278 0.038103 -0.009149 0.914216 -0.485149 0.397700
36.000000 41.000000 1.000000 -0.000000 -0.000000 -0.000000 1.000000 0.000000 -0.000000
36.000000 42.000000 1.000000 -0.080643 -0.023444 0.005629 1.044652 0.298506 -0.244700
36.000000 43.000000 1.000000 -0.130418 -0.039039 0.009374 1.070487 0.497067 -0.407471
36.000000 44.000000 1.000000 -0.163509 -0.050057 0.012019 1.086662 0.637362 -0.522477
36.000000 45.000000 1.000000 -0.186782 -0.058212 0.013977 1.097416 0.741195 -0.607594
36.000000 46.000000 1.000000 -0.203882 -0.064471 0.015480 1.104908 0.820881 -0.672917
36.000000 47.000000 1.000000 -0.216891 -0.069415 0.016667 1.110327 0.883829 -0.724518
36.000000 48.000000 1.000000 -0.227069 -0.073413 0.017627 1.114368 0.934736 -0.766249
36.000000 49.000000 1.000000 -0.235220 -0.076709 0.018419 1.117457 0.976711 -0.800658
36.000000 50.000000 1.000000 -0.241874 -0.079472 0.019082 1.119871 1.011889 -0.829495
36.000000 51.000000 1.000000 -0.247398 -0.081820 0.019646 1.121791 1.041779 -0.853998
36.000000 52.000000 1.000000 -0.252048 -0.083838 0.020130 1.123342 1.067481 -0.875066
36.000000 53.000000 1.000000 -0.256011 -0.085592 0.020551 1.124612 1.089808 -0.893370
36.000000 54.000000 1.000000 -0.259423 -0.087129 0.020920 1.125665 1.109380 -0.909414
36.000000 55.000000 1.000000 -0.262391 -0.088487 0.021247 1.126548 1.126674 -0.923590
36.000000 56.000000 1.000000 -0.264992 -0.089696 0.021537 1.127294 1.142062 -0.936204
36.000000 57.000000 1.000000 -0.267290 -0.090778 0.021797 1.127930 1.155841 -0.947500
36.000000 58.000000 1.000000 -0.269333 -0.091753 0.022031 1.128477 1.168250 -0.957672
36.000000 59.000000 1.000000 -0.271161 -0.092635 0.022242 1.128951 1.179482 -0.966880
36.000000 60.000000 1.000000 -0.272805 -0.093437 0.022435 1.129363 1.189697 -0.975253
36.000000 61.000000 1.000000 -0.274291 -0.094170 0.022611 1.129725 1.199026 -0.982900
36.000000 62.000000 1.000000 -0.275641 -0.094841 0.022772 1.130043 1.207578 -0.989911
36.000000 63.000000 1.000000 -0.276871 -0.095459 0.022921 1.130324 1.215447 -0.996362
36.000000 64.000000 1.000000 -0.277997 -0.096030 0.023058 1.130575 1.222711 -1.002317
36.000000 65.000000 1.000000 -0.279031 -0.096558 0.023184 1.130798 1.229437 -1.007830
36.000000 66.000000 1.000000 -0.279985 -0.097049 0.023302 1.130998 1.235683 -1.012950
36.000000 67.000000 1.000000 -0.280866 -0.097505 0.023412 1.131178 1.241497 -1.017716
36.000000 68.000000 1.000000 -0.281683 -0.097931 0.023514 1.131341 1.246924 -1.022165
36.000000 69.000000 1.000000 -0.282442 -0.098330 0.023610 1.131488 1.252000 -1.026326
36.000000 70.000000 1.000000 -0.283149 -0.098704 0.023700 1.131622 1.256758 -1.030226
36.000000 71.000000 1.000000 -0.283810 -0.099055 0.023784 1.131744 1.261227 -1.033890
36.000000 72.000000 1.000000 -0.284428 -0.099385 0.023863 1.131855 1.265433 -1.037338
36.000000 73.000000 1.000000 -0.285008 -0.099696 0.023938 1.131956 1.269398 -1.040588
36.000000 74.000000 1.000000 -0.285553 -0.099991 0.024009 1.132050 1.273142 -1.043657
36.000000 75.000000 1.000000 -0.286065 -0.100269 0.024075 1.132136 1.276684 -1.046560
36.000000 76.000000 1.000000 -0.286549 -0.100532 0.024139 1.132215 1.280038 -1.049310
36.000000 77.000000 1.000000 -0.287006 -0.100782 0.024199 1.132288 1.283220 -1.051919
36.000000 78.000000 1.000000 -0.287438 -0.101019 0.024256 1.132355 1.286243 -1.054396
36.000000 79.000000 1.000000 -0.287847 -0.101245 0.024310 1.132418 1.289117 -1.056753
36.000000 80.000000 1.000000 -0.288235 -0.101460 0.024361 1.132476 1.291855 -1.058997
36.000000 81.000000 1.000000 -0.288603 -0.101665 0.024411 1.132530 1.294464 -1.061136
