36.000000 1.000000 1.000000 -0.306629 -0.115079 0.028187 1.133111 1.501681 -1.241272
36.000000 2.000000 1.000000 -0.306906 -0.115337 0.028251 1.133000 1.505042 -1.244050
36.000000 3.000000 1.000000 -0.307195 -0.115609 0.028317 1.132879 1.508592 -1.246984
36.000000 4.000000 1.000000 -0.307496 -0.115896 0.028388 1.132746 1.512345 -1.250087
36.000000 5.000000 1.000000 -0.307810 -0.116201 0.028462 1.132601 1.516322 -1.253374
36.000000 6.000000 1.000000 -0.308138 -0.116524 0.028541 1.132441 1.520541 -1.256861
36.000000 7.000000 1.000000 -0.308480 -0.116868 0.028626 1.132265 1.525026 -1.260568
36.000000 8.000000 1.000000 -0.308837 -0.117234 0.028715 1.132070 1.529802 -1.264516
36.000000 9.000000 1.000000 -0.309209 -0.117625 0.028811 1.131853 1.534899 -1.268729
36.000000 10.000000 1.000000 -0.309598 -0.118042 0.028913 1.131612 1.540349 -1.273235
36.000000 11.000000 1.000000 -0.310003 -0.118490 0.029023 1.131342 1.546191 -1.278063
36.000000 12.000000 1.000000 -0.310425 -0.118971 0.029141 1.131039 1.552468 -1.283252
36.000000 13.000000 1.000000 -0.310863 -0.119489 0.029268 1.130696 1.559230 -1.288841
36.000000 14.000000 1.000000 -0.311318 -0.120049 0.029405 1.130307 1.566534 -1.294878
36.000000 15.000000 1.000000 -0.311789 -0.120655 0.029553 1.129863 1.574448 -1.301420
36.000000 16.000000 1.000000 -0.312274 -0.121315 0.029715 1.129354 1.583050 -1.308531
36.000000 17.000000 1.000000 -0.312769 -0.122034 0.029891 1.128765 1.592433 -1.316287
36.000000 18.000000 1.000000 -0.313272 -0.122821 0.030084 1.128081 1.602706 -1.324778
36.000000 19.000000 1.000000 -0.313773 -0.123686 0.030296 1.127277 1.614000 -1.334113
36.000000 20.000000 1.000000 -0.314264 -0.124642 0.030530 1.126327 1.626470 -1.344421
36.000000 21.000000 1.000000 -0.314727 -0.125702 0.030790 1.125192 1.640304 -1.355856
36.000000 22.000000 1.000000 -0.315138 -0.126885 0.031079 1.123819 1.655733 -1.368609
36.000000 23.000000 1.000000 -0.315458 -0.128211 0.031404 1.122141 1.673035 -1.382911
36.000000 24.000000 1.000000 -0.315630 -0.129707 0.031770 1.120057 1.692557 -1.399048
36.000000 25.000000 1.000000 -0.315563 -0.131405 0.032186 1.117429 1.714724 -1.417371
36.000000 26.000000 1.000000 -0.315111 -0.133347 0.032662 1.114049 1.740065 -1.438317
36.000000 27.000000 1.000000 -0.314036 -0.135582 0.033209 1.109603 1.769228 -1.462423
36.000000 28.000000 1.000000 -0.311931 -0.138170 0.033843 1.103597 1.802992 -1.490332
36.000000 29.000000 1.000000 -0.308082 -0.141177 0.034580 1.095214 1.842234 -1.522769
36.000000 30.000000 1.000000 -0.301158 -0.144665 0.035434 1.083031 1.887747 -1.560390
36.000000 31.000000 1.000000 -0.288525 -0.148639 0.036408 1.064405 1.939612 -1.603260
36.000000 32.000000 1.000000 -0.264510 -0.152885 0.037448 1.033987 1.995018 -1.649058
36.000000 33.000000 1.000000 -0.215547 -0.156367 0.038301 0.979775 2.040452 -1.686613
36.000000 34.000000 1.000000 -0.104529 -0.154819 0.037921 0.871091 2.020257 -1.669921
36.000000 35.000000 1.000000 0.185929 -0.129592 0.031742 0.618671 1.691059 -1.397809
36.000000 36.000000 1.000000 1.000000 -0.000000 -0.000000 0.000000 -0.000000 -0.000000
36.000000 37.000000 1.000000 1.889730 0.269774 -0.066078 -0.482962 -3.520311 2.909848
36.000000 38.000000 1.000000 1.068617 0.218309 -0.053473 0.260552 -2.848745 2.354739
36.000000 39.000000 1.000000 0.425773 0.101576 -0.024880 0.727385 -1.325477 1.095624
36.000000 40.000000 1.000000 0.140169 0.036502 -0.008941 0.914870 -0.476320 0.393721
36.000000 41.000000 1.000000 -0.000000 -0.000000 -0.000000 1.000000 0.000000 -0.000000
36.000000 42.000000 1.000000 -0.078274 -0.022439 0.005496 1.044441 0.292805 -0.242029
36.000000 43.000000 1.000000 -0.126585 -0.037364 0.009152 1.070247 0.487564 -0.403015
36.000000 44.000000 1.000000 -0.158709 -0.047912 0.011735 1.086468 0.625205 -0.516787
36.000000 45.000000 1.000000 -0.181312 -0.055721 0.013648 1.097295 0.727108 -0.601019
36.000000 46.000000 1.000000 -0.197926 -0.061716 0.015117 1.104870 0.805340 -0.665684
36.000000 47.000000 1.000000 -0.210570 -0.066454 0.016277 1.110371 0.867160 -0.716784
36.000000 48.000000 1.000000 -0.220467 -0.070286 0.017216 1.114489 0.917171 -0.758123
36.000000 49.000000 1.000000 -0.228396 -0.073447 0.017990 1.117652 0.958419 -0.792218
36.000000 50.000000 1.000000 -0.234872 -0.076097 0.018639 1.120132 0.992997 -0.820800
36.000000 51.000000 1.000000 -0.240248 -0.078349 0.019191 1.122113 1.022385 -0.845092
36.000000 52.000000 1.000000 -0.244776 -0.080286 0.019665 1.123720 1.047660 -0.865983
36.000000 53.000000 1.000000 -0.248635 -0.081969 0.020077 1.125042 1.069621 -0.884136
36.000000 54.000000 1.000000 -0.251961 -0.083444 0.020439 1.126142 1.088876 -0.900052
36.000000 55.000000 1.000000 -0.254852 -0.084748 0.020758 1.127068 1.105892 -0.914117
36.000000 56.000000 1.000000 -0.257388 -0.085909 0.021043 1.127854 1.121035 -0.926635
36.000000 57.000000 1.000000 -0.259628 -0.086948 0.021297 1.128527 1.134598 -0.937845
36.000000 58.000000 1.000000 -0.261621 -0.087884 0.021526 1.129108 1.146813 -0.947942
36.000000 59.000000 1.000000 -0.263403 -0.088732 0.021734 1.129613 1.157871 -0.957082
36.000000 60.000000 1.000000 -0.265007 -0.089502 0.021923 1.130054 1.167928 -0.965396
36.000000 61.000000 1.000000 -0.266457 -0.090206 0.022095 1.130443 1.177114 -0.972989
36.000000 62.000000 1.000000 -0.267774 -0.090852 0.022253 1.130786 1.185537 -0.979951
36.000000 63.000000 1.000000 -0.268975 -0.091446 0.022399 1.131092 1.193287 -0.986357
36.000000 64.000000 1.000000 -0.270074 -0.091994 0.022533 1.131364 1.200442 -0.992271
36.000000 65.000000 1.000000 -0.271084 -0.092502 0.022657 1.131609 1.207068 -0.997748
36.000000 66.000000 1.000000 -0.272015 -0.092973 0.022773 1.131828 1.213220 -1.002834
36.000000 67.000000 1.000000 -0.272875 -0.093412 0.022880 1.132027 1.218949 -1.007569
36.000000 68.000000 1.000000 -0.273673 -0.093822 0.022981 1.132207 1.224295 -1.011988
36.000000 69.000000 1.000000 -0.274415 -0.094205 0.023075 1.132371 1.229297 -1.016122
36.000000 70.000000 1.000000 -0.275106 -0.094565 0.023163 1.132520 1.233986 -1.019998
36.000000 71.000000 1.000000 -0.275751 -0.094902 0.023245 1.132656 1.238390 -1.023639
36.000000 72.000000 1.000000 -0.276355 -0.095220 0.023323 1.132782 1.242535 -1.027065
36.000000 73.000000 1.000000 -0.276922 -0.095519 0.023396 1.132897 1.246443 -1.030295
36.000000 74.000000 1.000000 -0.277454 -0.095802 0.023466 1.133002 1.250133 -1.033345
36.000000 75.000000 1.000000 -0.277955 -0.096070 0.023531 1.133100 1.253624 -1.036231
36.000000 76.000000 1.000000 -0.278428 -0.096323 0.023593 1.133191 1.256930 -1.038964
36.000000 77.000000 1.000000 -0.278874 -0.096563 0.023652 1.133275 1.260067 -1.041557
36.000000 78.000000 1.000000 -0.279296 -0.096792 0.023708 1.133353 1.263047 -1.044020
36.000000 79.000000 1.000000 -0.279696 -0.097009 0.023761 1.133425 1.265881 -1.046362
36.000000 80.000000 1.000000 -0.280076 -0.097216 0.023812 1.133493 1.268579 -1.048593
36.000000 81.000000 1.000000 -0.280436 -0.097413 0.023860 1.133556 1.271152 -1.050720
