1.000000 36.000000 1.000000 -1.088965 1.696231 0.392734 0.000000 0.000000 0.000000
2.000000 36.000000 1.000000 -1.081484 1.692877 0.388608 0.000000 0.000000 0.000000
3.000000 36.000000 1.000000 -1.073554 1.689289 0.384265 0.000000 0.000000 0.000000
4.000000 36.000000 1.000000 -1.065133 1.685443 0.379690 0.000000 0.000000 0.000000
5.000000 36.000000 1.000000 -1.056175 1.681313 0.374862 0.000000 0.000000 0.000000
6.000000 36.000000 1.000000 -1.046630 1.676868 0.369763 0.000000 0.000000 0.000000
7.000000 36.000000 1.000000 -1.036440 1.672072 0.364368 0.000000 0.000000 0.000000
8.000000 36.000000 1.000000 -1.025538 1.666886 0.358651 0.000000 0.000000 0.000000
9.000000 36.000000 1.000000 -1.013850 1.661264 0.352585 0.000000 0.000000 0.000000
10.000000 36.000000 1.000000 -1.001290 1.655153 0.346137 0.000000 0.000000 0.000000
11.000000 36.000000 1.000000 -0.987762 1.648490 0.339272 0.000000 0.000000 0.000000
12.000000 36.000000 1.000000 -0.973152 1.641204 0.331948 0.000000 0.000000 0.000000
13.000000 36.000000 1.000000 -0.957331 1.633209 0.324122 0.000000 0.000000 0.000000
14.000000 36.000000 1.000000 -0.940150 1.624408 0.315742 0.000000 0.000000 0.000000
15.000000 36.000000 1.000000 -0.921432 1.614681 0.306751 0.000000 0.000000 0.000000
16.000000 36.000000 1.000000 -0.900972 1.603889 0.297083 0.000000 0.000000 0.000000
17.000000 36.000000 1.000000 -0.878529 1.591864 0.286665 0.000000 0.000000 0.000000
18.000000 36.000000 1.000000 -0.853816 1.578402 0.275414 0.000000 0.000000 0.000000
19.000000 36.000000 1.000000 -0.826493 1.563259 0.263234 0.000000 0.000000 0.000000
20.000000 36.000000 1.000000 -0.796150 1.546132 0.250019 0.000000 0.000000 0.000000
21.000000 36.000000 1.000000 -0.762296 1.526650 0.235647 0.000000 0.000000 0.000000
22.000000 36.000000 1.000000 -0.724335 1.504351 0.219984 0.000000 0.000000 0.000000
23.000000 36.000000 1.000000 -0.681539 1.478659 0.202879 0.000000 0.000000 0.000000
24.000000 36.000000 1.000000 -0.633015 1.448843 0.184172 0.000000 0.000000 0.000000
25.000000 36.000000 1.000000 -0.577664 1.413973 0.163691 0.000000 0.000000 0.000000
26.000000 36.000000 1.000000 -0.514127 1.372855 0.141272 0.000000 0.000000 0.000000
27.000000 36.000000 1.000000 -0.440720 1.323944 0.116776 0.000000 0.000000 0.000000
28.000000 36.000000 1.000000 -0.355367 1.265230 0.090136 0.000000 0.000000 0.000000
29.000000 36.000000 1.000000 -0.255533 1.194094 0.061438 0.000000 0.000000 0.000000
30.000000 36.000000 1.000000 -0.138205 1.107134 0.031071 0.000000 0.000000 -0.000000
31.000000 36.000000 1.000000 -0.000000 1.000000 -0.000000 0.000000 0.000000 -0.000000
32.000000 36.000000 1.000000 0.162408 0.867343 -0.029751 0.000000 -0.000000 -0.000000
33.000000 36.000000 1.000000 0.351107 0.703161 -0.054268 0.000000 -0.000000 -0.000000
34.000000 36.000000 1.000000 0.564231 0.502215 -0.066445 0.000000 -0.000000 -0.000000
35.000000 36.000000 1.000000 0.790459 0.263842 -0.054301 0.000000 -0.000000 -0.000000
36.000000 36.000000 1.000000 1.000000 -0.000000 -0.000000 0.000000 -0.000000 -0.000000
37.000000 36.000000 1.000000 1.135692 -0.252716 0.117025 0.000000 -0.000000 -0.000000
38.000000 36.000000 1.000000 1.119427 -0.427024 0.307596 0.000000 -0.000000 -0.000000
39.000000 36.000000 1.000000 0.894790 -0.447998 0.553209 0.000000 -0.000000 -0.000000
40.000000 36.000000 1.000000 0.486550 -0.288715 0.802165 0.000000 -0.000000 -0.000000
41.000000 36.000000 1.000000 -0.000000 -0.000000 1.000000 0.000000 -0.000000 -0.000000
42.000000 36.000000 1.000000 -0.454282 0.330833 1.123449 0.000000 -0.000000 -0.000000
43.000000 36.000000 1.000000 -0.818717 0.637639 1.181078 0.000000 -0.000000 -0.000000
44.000000 36.000000 1.000000 -1.086083 0.892347 1.193736 0.000000 -0.000000 -0.000000
45.000000 36.000000 1.000000 -1.272779 1.092425 1.180354 0.000000 -0.000000 -0.000000
46.000000 36.000000 1.000000 -1.399720 1.245874 1.153846 0.000000 -0.000000 -0.000000
47.000000 36.000000 1.000000 -1.484674 1.362787 1.121887 0.000000 -0.000000 -0.000000
48.000000 36.000000 1.000000 -1.540776 1.452098 1.088678 0.000000 -0.000000 -0.000000
49.000000 36.000000 1.000000 -1.577191 1.520825 1.056366 0.000000 -0.000000 -0.000000
50.000000 36.000000 1.000000 -1.600166 1.574214 1.025952 0.000000 -0.000000 -0.000000
51.000000 36.000000 1.000000 -1.613933 1.616110 0.997823 0.000000 -0.000000 -0.000000
52.000000 36.000000 1.000000 -1.621366 1.649324 0.972042 0.000000 -0.000000 -0.000000
53.000000 36.000000 1.000000 -1.624430 1.675912 0.948517 0.000000 -0.000000 -0.000000
54.000000 36.000000 1.000000 -1.624476 1.697392 0.927084 0.000000 -0.000000 -0.000000
55.000000 36.000000 1.000000 -1.622446 1.714892 0.907554 0.000000 -0.000000 -0.000000
56.000000 36.000000 1.000000 -1.618998 1.729261 0.889737 0.000000 -0.000000 -0.000000
57.000000 36.000000 1.000000 -1.614598 1.741143 0.873455 0.000000 -0.000000 -0.000000
58.000000 36.000000 1.000000 -1.609575 1.751033 0.858542 0.000000 -0.000000 -0.000000
59.000000 36.000000 1.000000 -1.604164 1.759312 0.844852 0.000000 -0.000000 -0.000000
60.000000 36.000000 1.000000 -1.598535 1.766280 0.832255 0.000000 -0.000000 -0.000000
61.000000 36.000000 1.000000 -1.592806 1.772172 0.820634 0.000000 -0.000000 -0.000000
62.000000 36.000000 1.000000 -1.587065 1.777176 0.809889 0.000000 -0.000000 -0.000000
63.000000 36.000000 1.000000 -1.581371 1.781442 0.799929 0.000000 -0.000000 -0.000000
64.000000 36.000000 1.000000 -1.575767 1.785090 0.790676 0.000000 -0.000000 -0.000000
65.000000 36.000000 1.000000 -1.570283 1.788221 0.782062 0.000000 -0.000000 -0.000000
66.000000 36.000000 1.000000 -1.564938 1.790913 0.774025 0.000000 -0.000000 -0.000000
67.000000 36.000000 1.000000 -1.559744 1.793233 0.766511 0.000000 -0.000000 -0.000000
68.000000 36.000000 1.000000 -1.554710 1.795237 0.759473 0.000000 -0.000000 -0.000000
69.000000 36.000000 1.000000 -1.549838 1.796970 0.752868 0.000000 -0.000000 -0.000000
70.000000 36.000000 1.000000 -1.545129 1.798470 0.746659 0.000000 -0.000000 -0.000000
71.000000 36.000000 1.000000 -1.540581 1.799769 0.740812 0.000000 -0.000000 -0.000000
72.000000 36.000000 1.000000 -1.536192 1.800895 0.735297 0.000000 -0.000000 -0.000000
73.000000 36.000000 1.000000 -1.531958 1.801870 0.730088 0.000000 -0.000000 -0.000000
74.000000 36.000000 1.000000 -1.527874 1.802714 0.725160 0.000000 -0.000000 -0.000000
75.000000 36.000000 1.000000 -1.523935 1.803444 0.720491 0.000000 -0.000000 -0.000000
76.000000 36.000000 1.000000 -1.520137 1.804074 0.716063 0.000000 -0.000000 -0.000000
77.000000 36.000000 1.000000 -1.516473 1.804616 0.711857 0.000000 -0.000000 -0.000000
78.000000 36.000000 1.000000 -1.512938 1.805081 0.707857 0.000000 -0.000000 -0.000000
79.000000 36.000000 1.000000 -1.509528 1.805479 0.704049 0.000000 -0.000000 -0.000000
80.000000 36.000000 1.000000 -1.506236 1.805817 0.700419 0.000000 -0.000000 -0.000000
81.000000 36.000000 1.000000 -1.503058 1.806103 0.696955 0.000000 -0.000000 -0.000000
