1.000000 -0.679388 1.423929 0.255459 0.000000 -0.000000 -0.000000
2.000000 -0.676471 1.424800 0.251671 0.000000 -0.000000 -0.000000
3.000000 -0.673313 1.425598 0.247716 0.000000 -0.000000 -0.000000
4.000000 -0.669888 1.426305 0.243583 0.000000 -0.000000 -0.000000
5.000000 -0.666167 1.426905 0.239261 0.000000 -0.000000 -0.000000
6.000000 -0.662116 1.427378 0.234738 0.000000 -0.000000 -0.000000
7.000000 -0.657697 1.427698 0.229999 0.000000 -0.000000 -0.000000
8.000000 -0.652867 1.427837 0.225030 0.000000 -0.000000 -0.000000
9.000000 -0.647577 1.427763 0.219814 0.000000 -0.000000 -0.000000
10.000000 -0.641768 1.427434 0.214334 0.000000 -0.000000 -0.000000
11.000000 -0.635375 1.426803 0.208572 0.000000 -0.000000 -0.000000
12.000000 -0.628321 1.425815 0.202506 0.000000 -0.000000 -0.000000
13.000000 -0.620516 1.424401 0.196115 0.000000 -0.000000 -0.000000
14.000000 -0.611856 1.422482 0.189374 0.000000 -0.000000 -0.000000
15.000000 -0.602216 1.419958 0.182258 0.000000 -0.000000 -0.000000
16.000000 -0.591452 1.416714 0.174738 0.000000 -0.000000 -0.000000
17.000000 -0.579390 1.412605 0.166786 0.000000 -0.000000 -0.000000
18.000000 -0.565825 1.407456 0.158369 0.000000 -0.000000 -0.000000
19.000000 -0.550507 1.401053 0.149454 0.000000 -0.000000 -0.000000
20.000000 -0.533139 1.393130 0.140009 0.000000 -0.000000 -0.000000
21.000000 -0.513357 1.383358 0.129999 0.000000 -0.000000 -0.000000
22.000000 -0.490716 1.371324 0.119393 0.000000 -0.000000 -0.000000
23.000000 -0.464671 1.356509 0.108162 0.000000 -0.000000 -0.000000
24.000000 -0.434543 1.338257 0.096286 0.000000 -0.000000 -0.000000
25.000000 -0.399485 1.315726 0.083759 0.000000 -0.000000 -0.000000
26.000000 -0.358432 1.287835 0.070597 0.000000 -0.000000 -0.000000
27.000000 -0.310032 1.253180 0.056853 0.000000 -0.000000 -0.000000
28.000000 -0.252560 1.209922 0.042638 0.000000 -0.000000 -0.000000
29.000000 -0.183793 1.155638 0.028155 0.000000 -0.000000 -0.000000
30.000000 -0.100855 1.087102 0.013752 0.000000 -0.000000 -0.000000
31.000000 -0.000000 1.000000 0.000000 0.000000 -0.000000 -0.000000
32.000000 0.123648 0.888529 -0.012177 0.000000 -0.000000 -0.000000
33.000000 0.276422 0.744882 -0.021304 0.000000 -0.000000 -0.000000
34.000000 0.466431 0.558624 -0.025055 0.000000 -0.000000 0.000000
35.000000 0.703737 0.316064 -0.019801 0.000000 -0.000000 0.000000
36.000000 1.000000 0.000000 -0.000000 0.000000 -0.000000 0.000000
37.000000 1.366709 -0.409212 0.042503 0.000000 -0.000000 0.000000
38.000000 1.810376 -0.929233 0.118857 0.000000 -0.000000 0.000000
39.000000 2.322393 -1.564555 0.242162 0.000000 -0.000000 0.000000
40.000000 2.863021 -2.285945 0.422924 0.000000 -0.000000 0.000000
41.000000 3.347656 -3.007008 0.659353 0.000000 -0.000000 0.000000
42.000000 3.658552 -3.585020 0.926468 0.000000 -0.000000 0.000000
43.000000 3.700754 -3.878206 1.177452 0.000000 -0.000000 0.000000
44.000000 3.467537 -3.833465 1.365929 0.000000 -0.000000 0.000000
45.000000 3.043564 -3.514963 1.471399 0.000000 -0.000000 0.000000
46.000000 2.543098 -3.045760 1.502662 0.000000 -0.000000 0.000000
47.000000 2.052963 -2.535583 1.482619 0.000000 -0.000000 0.000000
48.000000 1.617573 -2.051257 1.433684 0.000000 -0.000000 0.000000
49.000000 1.250182 -1.622063 1.371882 0.000000 -0.000000 0.000000
50.000000 0.947876 -1.254729 1.306853 0.000000 -0.000000 0.000000
51.000000 0.701621 -0.945339 1.243718 0.000000 -0.000000 0.000000
52.000000 0.501313 -0.686172 1.184860 0.000000 -0.000000 0.000000
53.000000 0.337824 -0.468966 1.131141 0.000000 -0.000000 0.000000
54.000000 0.203585 -0.286229 1.082644 0.000000 -0.000000 0.000000
55.000000 0.092554 -0.131632 1.039078 0.000000 -0.000000 0.000000
56.000000 -0.000000 0.000000 1.000000 0.000000 -0.000000 0.000000
57.000000 -0.077764 0.112836 0.964928 0.000000 -0.000000 0.000000
58.000000 -0.143607 0.210212 0.933395 0.000000 -0.000000 0.000000
59.000000 -0.199770 0.294798 0.904972 0.000000 -0.000000 0.000000
60.000000 -0.248015 0.368735 0.879280 0.000000 -0.000000 0.000000
61.000000 -0.289732 0.433750 0.855982 0.000000 -0.000000 0.000000
62.000000 -0.326030 0.491239 0.834791 0.000000 -0.000000 0.000000
63.000000 -0.357796 0.542342 0.815454 0.000000 -0.000000 0.000000
64.000000 -0.385748 0.587992 0.797756 0.000000 -0.000000 0.000000
65.000000 -0.410469 0.628960 0.781509 0.000000 -0.000000 0.000000
66.000000 -0.432436 0.665885 0.766552 0.000000 -0.000000 0.000000
67.000000 -0.452043 0.699299 0.752744 0.000000 -0.000000 0.000000
68.000000 -0.469617 0.729653 0.739965 0.000000 -0.000000 0.000000
69.000000 -0.485430 0.757323 0.728108 0.000000 -0.000000 0.000000
70.000000 -0.499711 0.782631 0.717080 0.000000 -0.000000 0.000000
71.000000 -0.512652 0.805850 0.706801 0.000000 -0.000000 0.000000
72.000000 -0.524417 0.827217 0.697200 0.000000 -0.000000 0.000000
73.000000 -0.535146 0.846932 0.688214 0.000000 -0.000000 0.000000
74.000000 -0.544958 0.865172 0.679787 0.000000 -0.000000 0.000000
75.000000 -0.553957 0.882087 0.671869 0.000000 -0.000000 0.000000
76.000000 -0.562229 0.897811 0.664419 0.000000 -0.000000 0.000000
77.000000 -0.569854 0.912459 0.657395 0.000000 -0.000000 0.000000
78.000000 -0.576897 0.926134 0.650764 0.000000 -0.000000 0.000000
79.000000 -0.583418 0.938924 0.644493 0.000000 -0.000000 0.000000
80.000000 -0.589467 0.950911 0.638556 0.000000 -0.000000 0.000000
81.000000 -0.595090 0.962163 0.632926 0.000000 -0.000000 0.000000
