1.000000 36.000000 1.000000 -1.112654 1.709001 0.403653 0.000000 0.000000 0.000000
2.000000 36.000000 1.000000 -1.104985 1.705583 0.399402 0.000000 0.000000 0.000000
3.000000 36.000000 1.000000 -1.096855 1.701926 0.394929 0.000000 0.000000 0.000000
4.000000 36.000000 1.000000 -1.088222 1.698006 0.390216 0.000000 0.000000 0.000000
5.000000 36.000000 1.000000 -1.079038 1.693795 0.385244 0.000000 0.000000 0.000000
6.000000 36.000000 1.000000 -1.069252 1.689262 0.379991 0.000000 0.000000 0.000000
7.000000 36.000000 1.000000 -1.058804 1.684371 0.374433 0.000000 0.000000 0.000000
8.000000 36.000000 1.000000 -1.047625 1.679081 0.368544 0.000000 0.000000 0.000000
9.000000 36.000000 1.000000 -1.035641 1.673346 0.362295 0.000000 0.000000 0.000000
10.000000 36.000000 1.000000 -1.022762 1.667110 0.355652 0.000000 0.000000 0.000000
11.000000 36.000000 1.000000 -1.008890 1.660310 0.348580 0.000000 0.000000 0.000000
12.000000 36.000000 1.000000 -0.993909 1.652873 0.341035 0.000000 0.000000 0.000000
13.000000 36.000000 1.000000 -0.977686 1.644713 0.332973 0.000000 0.000000 0.000000
14.000000 36.000000 1.000000 -0.960067 1.635728 0.324340 0.000000 0.000000 0.000000
15.000000 36.000000 1.000000 -0.940874 1.625797 0.315077 0.000000 0.000000 0.000000
16.000000 36.000000 1.000000 -0.919895 1.614777 0.305118 0.000000 0.000000 0.000000
17.000000 36.000000 1.000000 -0.896884 1.602497 0.294387 0.000000 0.000000 0.000000
18.000000 36.000000 1.000000 -0.871547 1.588750 0.282797 0.000000 0.000000 0.000000
19.000000 36.000000 1.000000 -0.843537 1.573284 0.270253 0.000000 0.000000 0.000000
20.000000 36.000000 1.000000 -0.812436 1.555793 0.256643 0.000000 0.000000 0.000000
21.000000 36.000000 1.000000 -0.777742 1.535897 0.241844 0.000000 0.000000 0.000000
22.000000 36.000000 1.000000 -0.738847 1.513128 0.225719 0.000000 0.000000 0.000000
23.000000 36.000000 1.000000 -0.695012 1.486897 0.208115 0.000000 0.000000 0.000000
24.000000 36.000000 1.000000 -0.645328 1.456463 0.188865 0.000000 0.000000 0.000000
25.000000 36.000000 1.000000 -0.588682 1.420882 0.167800 0.000000 0.000000 0.000000
26.000000 36.000000 1.000000 -0.523699 1.378945 0.144754 0.000000 0.000000 0.000000
27.000000 36.000000 1.000000 -0.448680 1.329091 0.119589 0.000000 0.000000 0.000000
28.000000 36.000000 1.000000 -0.361542 1.269297 0.092245 0.000000 0.000000 0.000000
29.000000 36.000000 1.000000 -0.259756 1.196933 0.062824 0.000000 0.000000 0.000000
30.000000 36.000000 1.000000 -0.140343 1.108604 0.031739 0.000000 0.000000 -0.000000
31.000000 36.000000 1.000000 -0.000000 1.000000 -0.000000 0.000000 0.000000 -0.000000
32.000000 36.000000 1.000000 0.164422 0.865876 -0.030298 0.000000 -0.000000 -0.000000
33.000000 36.000000 1.000000 0.354693 0.700454 -0.055147 0.000000 -0.000000 -0.000000
34.000000 36.000000 1.000000 0.568428 0.498908 -0.067336 0.000000 -0.000000 -0.000000
35.000000 36.000000 1.000000 0.793629 0.261212 -0.054841 0.000000 -0.000000 -0.000000
36.000000 36.000000 1.000000 1.000000 -0.000000 -0.000000 0.000000 -0.000000 -0.000000
37.000000 36.000000 1.000000 1.130930 -0.248153 0.117224 0.000000 -0.000000 -0.000000
38.000000 36.000000 1.000000 1.110801 -0.417834 0.307033 0.000000 -0.000000 -0.000000
39.000000 36.000000 1.000000 0.886359 -0.437599 0.551240 0.000000 -0.000000 -0.000000
40.000000 36.000000 1.000000 0.482321 -0.282221 0.799900 0.000000 -0.000000 -0.000000
41.000000 36.000000 1.000000 -0.000000 -0.000000 1.000000 0.000000 -0.000000 -0.000000
42.000000 36.000000 1.000000 -0.453356 0.325562 1.127794 0.000000 -0.000000 -0.000000
43.000000 36.000000 1.000000 -0.820265 0.629951 1.190314 0.000000 -0.000000 -0.000000
44.000000 36.000000 1.000000 -1.091933 0.884664 1.207269 0.000000 -0.000000 -0.000000
45.000000 36.000000 1.000000 -1.283332 1.086148 1.197184 0.000000 -0.000000 -0.000000
46.000000 36.000000 1.000000 -1.414596 1.241585 1.173010 0.000000 -0.000000 -0.000000
47.000000 36.000000 1.000000 -1.503212 1.360594 1.142618 0.000000 -0.000000 -0.000000
48.000000 36.000000 1.000000 -1.562293 1.451878 1.110414 0.000000 -0.000000 -0.000000
49.000000 36.000000 1.000000 -1.601080 1.522367 1.078713 0.000000 -0.000000 -0.000000
50.000000 36.000000 1.000000 -1.625927 1.577288 1.048639 0.000000 -0.000000 -0.000000
51.000000 36.000000 1.000000 -1.641166 1.620501 1.020665 0.000000 -0.000000 -0.000000
52.000000 36.000000 1.000000 -1.649756 1.654840 0.994916 0.000000 -0.000000 -0.000000
53.000000 36.000000 1.000000 -1.653730 1.682389 0.971341 0.000000 -0.000000 -0.000000
54.000000 36.000000 1.000000 -1.654495 1.704691 0.949804 0.000000 -0.000000 -0.000000
55.000000 36.000000 1.000000 -1.653032 1.722896 0.930136 0.000000 -0.000000 -0.000000
56.000000 36.000000 1.000000 -1.650033 1.737873 0.912160 0.000000 -0.000000 -0.000000
57.000000 36.000000 1.000000 -1.645987 1.750282 0.895706 0.000000 -0.000000 -0.000000
58.000000 36.000000 1.000000 -1.641245 1.760629 0.880616 0.000000 -0.000000 -0.000000
59.000000 36.000000 1.000000 -1.636055 1.769307 0.866748 0.000000 -0.000000 -0.000000
60.000000 36.000000 1.000000 -1.630599 1.776626 0.853973 0.000000 -0.000000 -0.000000
61.000000 36.000000 1.000000 -1.625006 1.782827 0.842179 0.000000 -0.000000 -0.000000
62.000000 36.000000 1.000000 -1.619368 1.788104 0.831264 0.000000 -0.000000 -0.000000
63.000000 36.000000 1.000000 -1.613753 1.792612 0.821141 0.000000 -0.000000 -0.000000
64.000000 36.000000 1.000000 -1.608208 1.796477 0.811730 0.000000 -0.000000 -0.000000
65.000000 36.000000 1.000000 -1.602765 1.799801 0.802964 0.000000 -0.000000 -0.000000
66.000000 36.000000 1.000000 -1.597448 1.802667 0.794781 0.000000 -0.000000 -0.000000
67.000000 36.000000 1.000000 -1.592272 1.805145 0.787128 0.000000 -0.000000 -0.000000
68.000000 36.000000 1.000000 -1.587245 1.807290 0.779955 0.000000 -0.000000 -0.000000
69.000000 36.000000 1.000000 -1.582374 1.809151 0.773222 0.000000 -0.000000 -0.000000
70.000000 36.000000 1.000000 -1.577658 1.810768 0.766891 0.000000 -0.000000 -0.000000
71.000000 36.000000 1.000000 -1.573100 1.812173 0.760926 0.000000 -0.000000 -0.000000
72.000000 36.000000 1.000000 -1.568695 1.813396 0.755299 0.000000 -0.000000 -0.000000
73.000000 36.000000 1.000000 -1.564442 1.814460 0.749982 0.000000 -0.000000 -0.000000
74.000000 36.000000 1.000000 -1.560337 1.815386 0.744951 0.000000 -0.000000 -0.000000
75.000000 36.000000 1.000000 -1.556375 1.816191 0.740183 0.000000 -0.000000 -0.000000
76.000000 36.000000 1.000000 -1.552551 1.816891 0.735660 0.000000 -0.000000 -0.000000
77.000000 36.000000 1.000000 -1.548860 1.817497 0.731363 0.000000 -0.000000 -0.000000
78.000000 36.000000 1.000000 -1.545298 1.818022 0.727276 0.000000 -0.000000 -0.000000
79.000000 36.000000 1.000000 -1.541858 1.818474 0.723384 0.000000 -0.000000 -0.000000
80.000000 36.000000 1.000000 -1.538537 1.818864 0.719674 0.000000 -0.000000 -0.000000
81.000000 36.000000 1.000000 -1.535330 1.819197 0.716133 0.000000 -0.000000 -0.000000
